~o
<STREAMINFO> 1 39
<VECSIZE> 39<NULLD><MFCC_D_A_0><DIAGC>
~h "abrir"
<BEGINHMM>
<NUMSTATES> 7
<STATE> 2
<MEAN> 39
 -7.569335e+000 -1.553047e+000 9.744266e-001 1.395168e+000 1.720298e+000 1.391542e+000 3.339112e+000 2.746989e+000 3.754188e+000 3.604909e+000 4.125623e+000 2.599675e+000 4.890240e+001 9.023896e-003 -1.498403e-002 -2.844425e-002 1.829238e-002 9.730112e-003 -5.148940e-002 -3.929637e-003 2.320663e-002 -2.061765e-002 3.239129e-003 1.156867e-002 -5.126271e-003 -1.630566e-003 7.435441e-004 -1.798501e-002 -1.179049e-002 1.546410e-002 -6.901733e-003 -1.793848e-002 -9.272349e-003 -2.599540e-002 -2.659685e-002 1.970042e-003 -2.175622e-002 -9.354059e-003 3.378616e-002
<VARIANCE> 39
 1.484751e+001 1.535137e+001 1.339822e+001 1.639610e+001 2.612465e+001 2.864033e+001 2.756959e+001 3.630493e+001 3.278834e+001 3.528306e+001 3.113017e+001 2.567073e+001 8.426291e+001 2.200976e-001 4.208658e-001 6.514077e-001 8.571351e-001 1.214576e+000 1.381882e+000 1.590818e+000 1.867595e+000 1.921957e+000 1.836112e+000 1.682462e+000 1.532358e+000 1.549776e-001 4.145970e-002 9.557249e-002 1.284617e-001 1.697294e-001 2.371429e-001 2.682939e-001 3.106865e-001 3.761509e-001 3.996383e-001 3.633024e-001 3.331309e-001 3.038474e-001 4.192092e-002
<GCONST> 9.153393e+001
<STATE> 3
<MEAN> 39
 -6.943784e+000 -9.938271e+000 -7.929548e+000 1.608323e+000 3.140115e-001 -6.090336e+000 7.950252e-001 -4.876667e+000 -1.005674e+001 -5.628242e-001 1.522364e+000 -1.774591e+000 6.352008e+001 3.061492e-001 1.110345e-002 -2.716860e-002 2.954883e-002 -7.489703e-002 -3.170864e-001 -1.816615e-001 -2.775019e-001 -4.878890e-001 -1.870572e-001 -8.225775e-002 -1.471262e-001 4.774586e-001 -1.466540e-002 3.051773e-002 3.964879e-002 -5.650340e-002 -4.880030e-002 1.278158e-002 1.100563e-002 3.429975e-002 9.686236e-002 2.050683e-002 -7.314163e-003 2.771203e-005 -4.641271e-003
<VARIANCE> 39
 4.590424e+001 5.497366e+001 4.848448e+001 4.655250e+001 4.580924e+001 4.200177e+001 4.297952e+001 6.577723e+001 7.313620e+001 6.754970e+001 3.663116e+001 3.379197e+001 2.081084e+002 1.185640e+000 2.946684e+000 3.103483e+000 2.164072e+000 1.824066e+000 2.562625e+000 2.484741e+000 4.075502e+000 4.315728e+000 2.730622e+000 2.374583e+000 2.128035e+000 8.240449e+000 1.790798e-001 3.765000e-001 4.368804e-001 4.366779e-001 3.627800e-001 4.677371e-001 4.761817e-001 7.567737e-001 7.496656e-001 5.266931e-001 4.533280e-001 3.849502e-001 9.617539e-001
<GCONST> 1.270527e+002
<STATE> 4
<MEAN> 39
 -5.535552e+000 -1.001018e+000 3.104598e-001 -1.094186e+001 -7.738216e+000 -7.268878e+000 -2.544833e+000 -4.927979e+000 -1.975965e+000 -1.044871e+000 -2.154369e+000 -3.340925e+000 6.628189e+001 -6.364591e-001 8.188299e-001 3.296822e-002 -1.782850e+000 -6.263782e-001 -1.201696e-001 -4.587334e-001 3.163354e-001 1.096303e+000 9.624543e-002 -1.995526e-001 7.267372e-002 8.330057e-001 -5.611092e-003 8.979312e-002 -1.257485e-001 2.905661e-002 1.006395e-001 -7.541088e-002 -1.057160e-001 1.323202e-002 -1.460344e-001 -9.486622e-002 1.296371e-001 7.505226e-003 -3.153841e-002
<VARIANCE> 39
 2.669449e+001 7.911203e+001 3.140108e+001 1.185887e+002 5.255011e+001 4.232949e+001 6.568362e+001 5.158363e+001 5.923161e+001 5.719297e+001 6.104221e+001 3.388614e+001 1.006338e+002 1.055358e+000 2.488913e+000 2.482942e+000 6.783018e+000 5.743837e+000 3.302607e+000 5.689646e+000 4.418231e+000 4.616789e+000 4.413367e+000 4.481893e+000 3.805056e+000 6.713188e+000 1.748023e-001 3.466909e-001 4.711460e-001 1.329579e+000 1.132847e+000 5.972398e-001 1.007679e+000 8.757877e-001 7.990021e-001 8.426179e-001 8.036590e-001 7.874209e-001 1.245906e+000
<GCONST> 1.370557e+002
<STATE> 5
<MEAN> 39
 -8.314713e+000 6.761654e+000 -2.300505e+000 -1.281440e+001 -4.562738e+000 -9.329133e+000 -5.159729e+000 -3.403830e+000 -8.002257e-001 -3.185565e+000 8.421517e-002 -3.041765e+000 6.205608e+001 4.225341e-002 -1.989610e-001 5.367775e-002 5.394894e-001 2.983305e-001 2.488664e-001 2.358357e-001 -3.665257e-003 -1.010903e-001 3.041905e-002 3.673093e-002 1.374988e-002 -5.534115e-001 6.692574e-003 -7.206944e-002 2.495077e-002 5.470778e-002 1.209472e-002 5.391231e-002 5.622028e-002 -1.939768e-002 1.271269e-002 3.742417e-002 -3.118873e-002 1.919534e-002 -2.566700e-002
<VARIANCE> 39
 3.806855e+001 6.836871e+001 4.235683e+001 9.284911e+001 7.726750e+001 7.401892e+001 6.685687e+001 5.514366e+001 5.164747e+001 5.505618e+001 4.635318e+001 2.869820e+001 1.013439e+002 7.494557e-001 1.341045e+000 1.334123e+000 2.070594e+000 2.116575e+000 2.597667e+000 2.498549e+000 2.407866e+000 2.537482e+000 2.433442e+000 2.264240e+000 1.982713e+000 1.000717e+000 1.132645e-001 1.648033e-001 2.246795e-001 3.565992e-001 3.698924e-001 4.188276e-001 4.545136e-001 4.496513e-001 4.819615e-001 4.533449e-001 4.199438e-001 3.577817e-001 1.490910e-001
<GCONST> 1.170125e+002
<STATE> 6
<MEAN> 39
 -6.704585e+000 -1.640668e+000 7.021540e-001 5.542003e-001 1.437008e+000 6.174963e-001 2.562071e+000 -1.825704e-001 1.669541e+000 1.637921e+000 2.252059e+000 6.037287e-001 4.867713e+001 -1.963996e-003 -1.271052e-001 -4.349763e-002 1.120393e-001 -1.125065e-002 5.451277e-002 8.053246e-002 8.246877e-002 2.639775e-002 6.224939e-002 5.914099e-002 5.781398e-002 -1.756684e-001 8.563713e-003 3.176642e-002 6.085843e-003 -3.199570e-002 -2.846462e-003 -2.577810e-002 -3.081365e-002 -8.968657e-004 -1.348358e-002 -2.235101e-002 -1.174320e-002 -6.244822e-003 2.130487e-002
<VARIANCE> 39
 2.795127e+001 2.547408e+001 2.010884e+001 2.000545e+001 3.844331e+001 2.573224e+001 3.424019e+001 3.643615e+001 4.186425e+001 3.937736e+001 3.122670e+001 2.691450e+001 1.915959e+002 2.397454e-001 5.076305e-001 7.612983e-001 1.024324e+000 1.327871e+000 1.605310e+000 1.929019e+000 1.977481e+000 2.215332e+000 2.068805e+000 1.913259e+000 1.736479e+000 1.821122e-001 4.088425e-002 8.351360e-002 1.406335e-001 1.873798e-001 2.504741e-001 2.901830e-001 3.750004e-001 3.748367e-001 4.273067e-001 4.034481e-001 3.723288e-001 3.332478e-001 2.057641e-002
<GCONST> 9.679797e+001
<TRANSP> 7
 0.000000e+000 1.000000e+000 0.000000e+000 0.000000e+000 0.000000e+000 0.000000e+000 0.000000e+000
 0.000000e+000 9.513847e-001 4.861527e-002 0.000000e+000 0.000000e+000 0.000000e+000 0.000000e+000
 0.000000e+000 0.000000e+000 9.615223e-001 3.847761e-002 0.000000e+000 0.000000e+000 0.000000e+000
 0.000000e+000 0.000000e+000 0.000000e+000 9.194461e-001 8.055383e-002 0.000000e+000 0.000000e+000
 0.000000e+000 0.000000e+000 0.000000e+000 0.000000e+000 9.683021e-001 3.169793e-002 0.000000e+000
 0.000000e+000 0.000000e+000 0.000000e+000 0.000000e+000 0.000000e+000 9.559914e-001 4.400857e-002
 0.000000e+000 0.000000e+000 0.000000e+000 0.000000e+000 0.000000e+000 0.000000e+000 0.000000e+000
<ENDHMM>
~h "fechar"
<BEGINHMM>
<NUMSTATES> 7
<STATE> 2
<NUMMIXES> 2
<MIXTURE> 1 4.706610e-001
<MEAN> 39
 -4.411014e+000 -1.901128e+000 -1.815865e+000 -1.661655e+000 -3.407465e+000 -4.493161e+000 3.089669e-001 -3.379023e-001 -1.853410e+000 -8.645351e-001 8.540525e-001 -2.184930e+000 5.414983e+001 -4.514775e-002 2.641390e-001 2.180674e-001 1.099422e-001 3.043346e-001 1.774412e-001 -7.765264e-002 -1.202839e-001 1.019103e-001 1.793228e-002 1.250809e-001 6.385502e-002 -6.519431e-001 -4.401246e-002 -1.534922e-001 -1.246043e-001 6.910940e-002 -1.075075e-001 1.528271e-001 8.223581e-002 2.591297e-002 -3.176572e-002 -1.097221e-001 1.126281e-002 -2.401318e-002 8.782397e-002
<VARIANCE> 39
 3.466029e+001 2.972642e+001 5.875692e+001 5.105183e+001 5.095100e+001 1.007109e+002 6.094272e+001 5.456431e+001 8.445633e+001 4.818206e+001 4.964196e+001 5.933269e+001 1.765280e+002 5.492501e-001 1.391073e+000 1.483718e+000 2.022317e+000 2.796823e+000 2.972739e+000 2.811732e+000 2.770305e+000 2.584759e+000 2.706407e+000 2.462245e+000 2.365611e+000 1.291922e+000 1.007970e-001 1.937127e-001 2.379240e-001 3.670745e-001 4.672425e-001 5.375228e-001 5.476246e-001 5.329792e-001 5.273329e-001 5.114815e-001 4.857343e-001 4.938494e-001 1.253460e-001
<GCONST> 1.199083e+002
<MIXTURE> 2 5.293391e-001
<MEAN> 39
 -4.996183e+000 -8.299513e+000 -9.465412e+000 -3.700698e+000 -1.160440e+001 -7.905876e+000 2.802037e-001 -3.574250e+000 -9.404934e+000 -6.770091e+000 -8.520357e-001 -4.755877e+000 6.762698e+001 1.471043e-001 1.424047e-001 9.696174e-002 -3.322121e-001 -3.719003e-001 -4.440964e-001 -2.546831e-001 6.807880e-002 -2.033055e-001 2.149590e-001 -3.327353e-001 -2.542879e-001 4.789122e-001 -1.268431e-002 1.783233e-001 1.799016e-001 -4.230719e-002 2.059285e-001 -5.498606e-002 -4.156763e-002 -1.698804e-002 1.035762e-001 1.245695e-001 -6.772077e-003 9.102274e-002 -2.339879e-001
<VARIANCE> 39
 2.482713e+001 2.339693e+001 2.633239e+001 5.342297e+001 3.671400e+001 5.079604e+001 7.368126e+001 8.663329e+001 5.133876e+001 4.092549e+001 4.368721e+001 3.899643e+001 1.432554e+002 8.592702e-001 1.528448e+000 1.988142e+000 1.443867e+000 2.606381e+000 2.574742e+000 2.486768e+000 2.633186e+000 2.484442e+000 2.901752e+000 2.515328e+000 2.486262e+000 3.980438e+000 1.368032e-001 1.997101e-001 2.308231e-001 2.412228e-001 3.526577e-001 3.879442e-001 4.008094e-001 4.272664e-001 3.650222e-001 3.970359e-001 4.244021e-001 4.130376e-001 3.331110e-001
<GCONST> 1.169244e+002
<STATE> 3
<NUMMIXES> 2
<MIXTURE> 1 5.207537e-001
<MEAN> 39
 -3.827437e+000 -1.655018e-001 -2.620869e+000 -1.328539e+000 -3.725231e+000 -6.170532e+000 2.656496e-001 -1.079871e+000 -5.765963e+000 -1.102527e+000 -1.539703e+000 -1.151268e+000 5.832680e+001 -6.360516e-001 9.545989e-002 3.564795e-001 -5.960525e-002 5.004568e-001 7.019010e-001 1.900452e-001 1.082354e-001 1.242566e+000 1.237772e-001 8.170358e-002 4.363419e-001 -3.546395e-001 -8.885175e-002 -1.516573e-001 -2.007090e-001 -3.579931e-001 -2.635720e-001 5.924566e-002 2.252875e-002 -1.781186e-001 1.291792e-001 -2.051851e-002 -2.978662e-001 4.139474e-002 6.595227e-001
<VARIANCE> 39
 2.237580e+001 2.357000e+001 6.085231e+001 5.224988e+001 4.941581e+001 6.009651e+001 3.845618e+001 4.933147e+001 9.504558e+001 6.460556e+001 4.208871e+001 3.238820e+001 1.232989e+002 2.013676e+000 2.079023e+000 2.996760e+000 3.297191e+000 2.668225e+000 4.631926e+000 3.485382e+000 3.011580e+000 4.784204e+000 3.777587e+000 3.854346e+000 2.763485e+000 5.733026e+000 3.327735e-001 3.636638e-001 5.799969e-001 8.208898e-001 6.000434e-001 7.951628e-001 7.271549e-001 6.395184e-001 1.067058e+000 7.349521e-001 9.015153e-001 5.351663e-001 1.108722e+000
<GCONST> 1.326748e+002
<MIXTURE> 2 4.792458e-001
<MEAN> 39
 -8.013505e+000 -3.855081e+000 -5.074148e+000 -9.832831e+000 -8.370373e+000 -1.325755e+000 1.605125e+000 -4.701559e+000 -1.391117e+000 -1.606886e+000 -7.462449e+000 6.841881e-001 6.778837e+001 -9.236272e-002 -7.245579e-001 -1.310562e+000 -2.579488e+000 -1.467979e+000 8.379040e-001 6.425663e-001 -5.147361e-001 -4.300987e-001 -2.933424e-001 -1.988538e+000 3.571150e-001 3.796530e+000 1.413812e-001 4.702716e-002 1.808185e-004 1.342970e-001 1.595083e-001 -9.758317e-002 -6.256814e-002 1.444940e-001 -3.084318e-001 -1.433745e-001 3.057891e-001 -9.908579e-002 -3.634751e-001
<VARIANCE> 39
 2.034062e+001 2.773574e+001 3.619609e+001 8.053345e+001 6.002261e+001 4.510865e+001 6.363998e+001 5.652573e+001 5.845830e+001 5.539104e+001 6.923154e+001 3.604251e+001 1.286661e+002 1.859864e+000 2.380397e+000 2.934202e+000 4.377459e+000 5.435575e+000 4.081665e+000 5.378847e+000 5.065601e+000 7.611879e+000 4.607992e+000 5.595255e+000 4.013712e+000 6.485519e+000 3.611812e-001 3.717099e-001 4.946440e-001 1.014032e+000 1.172521e+000 5.971568e-001 9.148506e-001 7.050955e-001 1.188460e+000 7.353997e-001 1.232676e+000 6.800703e-001 1.475442e+000
<GCONST> 1.384129e+002
<STATE> 4
<NUMMIXES> 2
<MIXTURE> 1 4.843698e-001
<MEAN> 39
 -8.160343e+000 5.376968e+000 -2.956810e+000 -1.886646e+001 -9.909668e+000 -7.474246e+000 -7.788596e+000 -1.592591e+000 1.099540e+000 -1.066910e+000 -4.094837e+000 -6.569456e-001 7.146883e+001 1.545588e-001 6.845596e-001 6.160746e-001 9.644382e-002 8.802463e-002 -6.380132e-001 -8.771587e-001 -1.411342e-002 -1.908154e-002 2.907297e-001 8.957673e-001 -2.091884e-001 -4.684446e-001 -2.448406e-003 -2.070758e-001 -3.104714e-002 4.878602e-002 -1.905297e-002 1.423586e-001 1.314244e-001 -1.415767e-002 -7.839346e-002 -6.296971e-002 2.946877e-002 1.112869e-002 7.426734e-002
<VARIANCE> 39
 2.147366e+001 4.679091e+001 2.821882e+001 4.386684e+001 5.794043e+001 6.594298e+001 5.850550e+001 4.958545e+001 4.373043e+001 5.049941e+001 5.131293e+001 3.167431e+001 7.289632e+001 5.161138e-001 1.991651e+000 1.698285e+000 2.491506e+000 2.208197e+000 2.836655e+000 2.844084e+000 2.470706e+000 2.596880e+000 2.984066e+000 2.111921e+000 2.152393e+000 1.999219e+000 1.136195e-001 2.401807e-001 3.280604e-001 5.408427e-001 5.240991e-001 4.666148e-001 5.189493e-001 5.306595e-001 4.653401e-001 5.161394e-001 4.220775e-001 3.666500e-001 4.054113e-001
<GCONST> 1.186000e+002
<MIXTURE> 2 5.156290e-001
<MEAN> 39
 -1.022022e+001 -1.519418e+000 -7.547155e+000 -2.027348e+001 -9.238691e+000 -2.499889e+000 -2.090387e+000 -3.701247e+000 -2.226929e+000 -4.845974e+000 -6.745688e+000 1.423892e+000 7.394795e+001 -1.345465e-001 3.956072e-001 1.758713e-002 -6.136699e-001 -6.119814e-002 -4.293191e-001 -6.527720e-001 5.093269e-001 1.905408e-001 -2.728450e-001 3.652968e-001 -2.916586e-001 2.001462e-002 1.096960e-001 4.972680e-002 1.579527e-001 1.295807e-001 -1.466291e-001 -1.162823e-001 -2.616810e-002 1.657364e-002 1.279769e-001 1.922903e-001 -3.406395e-002 -1.372934e-001 -1.849031e-001
<VARIANCE> 39
 1.500619e+001 6.235358e+001 2.428497e+001 6.407470e+001 5.236729e+001 7.968072e+001 8.731674e+001 5.988547e+001 4.352801e+001 4.513346e+001 5.713747e+001 4.429121e+001 7.106491e+001 3.402971e-001 1.117923e+000 8.305232e-001 1.286943e+000 1.564358e+000 2.321709e+000 2.018352e+000 2.174137e+000 2.110852e+000 2.140285e+000 2.023137e+000 1.862703e+000 4.222576e-001 6.413402e-002 2.009059e-001 1.739538e-001 3.206338e-001 2.857619e-001 3.986469e-001 4.162093e-001 3.987595e-001 3.814268e-001 3.818838e-001 3.654822e-001 3.787263e-001 1.428089e-001
<GCONST> 1.092344e+002
<STATE> 5
<NUMMIXES> 2
<MIXTURE> 1 5.221815e-001
<MEAN> 39
 -5.529463e+000 1.037687e+000 -8.349635e-001 -1.814929e+001 -1.524595e+001 -9.567780e+000 -6.394834e+000 4.578920e-001 -6.464496e-001 -4.122137e-001 1.069814e+000 -7.313994e+000 7.106345e+001 1.134200e+000 -2.113812e+000 -9.604653e-001 2.181071e+000 -1.002394e+000 -1.123491e+000 2.441391e+000 1.059163e+000 -8.223361e-001 4.301329e-002 2.700854e-001 -1.027644e+000 -1.523736e-002 6.054216e-002 1.444770e-001 -6.167470e-001 3.918252e-001 7.639530e-001 -6.335217e-001 -1.629212e-001 5.213294e-001 -4.258706e-002 -5.154058e-001 -2.515856e-002 3.840537e-001 -7.678590e-002
<VARIANCE> 39
 2.106132e+001 3.445988e+001 3.581043e+001 5.111827e+001 5.116058e+001 4.496936e+001 6.990682e+001 3.748108e+001 6.297814e+001 3.698262e+001 4.121193e+001 3.724036e+001 7.192129e+001 3.721217e-001 1.035929e+000 2.239249e+000 2.272924e+000 4.267909e+000 4.441994e+000 3.656464e+000 4.020695e+000 3.436510e+000 4.497110e+000 2.392973e+000 2.484575e+000 2.176712e-001 5.800934e-002 1.979285e-001 2.125472e-001 5.248336e-001 8.239525e-001 5.513499e-001 1.613575e+000 5.367931e-001 9.225077e-001 6.882553e-001 5.481111e-001 5.506848e-001 2.531514e-002
<GCONST> 1.171321e+002
<MIXTURE> 2 4.778173e-001
<MEAN> 39
 -1.610701e+000 -5.182953e+000 -1.015477e+001 -9.997494e+000 -1.010936e+001 -1.810265e+001 -4.723038e+000 9.301685e+000 -4.315991e-001 -6.012827e+000 -9.956383e-001 -5.443065e+000 7.131561e+001 8.184982e-001 -3.580789e-001 -1.982156e+000 6.479630e-001 2.553165e+000 -5.238034e-001 -1.532553e+000 4.754874e-001 1.710279e+000 -2.461033e-001 -1.667359e+000 3.924791e-001 -4.209725e-001 -9.839699e-002 3.394117e-001 2.235395e-001 -5.473132e-001 1.796406e-003 6.926430e-001 -2.816828e-001 -9.248534e-001 2.405459e-001 7.560301e-001 -2.215530e-001 -2.729001e-001 -6.444293e-002
<VARIANCE> 39
 1.759305e+001 1.839056e+001 3.122139e+001 2.529042e+001 4.499002e+001 2.634084e+001 4.540868e+001 3.811271e+001 5.394822e+001 4.312884e+001 4.777327e+001 3.960111e+001 8.389103e+001 4.544683e-001 6.884618e-001 1.688363e+000 1.843177e+000 2.422875e+000 2.935176e+000 2.650062e+000 5.296338e+000 3.095871e+000 5.346859e+000 2.813106e+000 2.986913e+000 1.988628e-001 5.800854e-002 1.190199e-001 2.030584e-001 3.048200e-001 5.052812e-001 3.994510e-001 9.142699e-001 5.522056e-001 9.235184e-001 6.547633e-001 7.984717e-001 5.190964e-001 2.094561e-002
<GCONST> 1.109943e+002
<STATE> 6
<NUMMIXES> 2
<MIXTURE> 1 2.568841e-001
<MEAN> 39
 2.497624e+000 3.669410e+000 3.772719e-001 4.176631e+000 6.311538e+000 2.987966e+000 5.940118e+000 5.659391e+000 6.516759e+000 6.583053e+000 4.684123e+000 3.682795e+000 5.125874e+001 -5.438653e-002 5.002763e-002 1.585901e-001 1.034685e-001 5.382068e-002 1.508916e-001 8.217476e-002 6.004340e-002 6.918077e-002 4.740115e-002 1.191550e-001 5.066752e-002 -2.002904e-001 -1.178383e-002 -3.212409e-002 -1.014175e-002 4.488141e-003 -6.708850e-003 -2.764014e-002 -4.475943e-002 -1.140124e-002 -8.945209e-003 -3.769637e-002 -4.893926e-002 -3.719500e-002 1.781032e-002
<VARIANCE> 39
 3.702480e+001 3.209131e+001 9.867190e+001 7.266321e+001 1.699368e+001 1.017427e+002 4.187948e+001 6.537329e+001 3.394810e+001 3.378513e+001 3.002217e+001 3.692082e+001 7.329681e+001 1.675535e-001 2.397521e-001 4.649373e-001 5.621064e-001 5.104735e-001 7.567169e-001 7.211345e-001 8.965290e-001 9.631368e-001 8.256536e-001 7.128142e-001 6.650442e-001 2.302238e-001 2.391491e-002 3.903140e-002 6.902359e-002 8.030904e-002 7.323623e-002 1.191455e-001 1.100577e-001 1.596080e-001 1.356352e-001 1.467965e-001 1.196270e-001 1.212614e-001 2.034694e-002
<GCONST> 7.996758e+001
<MIXTURE> 2 7.431148e-001
<MEAN> 39
 -1.399445e+000 -5.483882e+000 -1.229946e+001 -4.128667e+000 -1.851706e+000 -9.741009e+000 -4.490429e+000 -7.722902e-002 1.752505e+000 -1.347480e+000 -4.104304e+000 -5.169929e+000 6.131226e+001 -1.635829e-001 2.234254e-002 2.550948e-001 3.667404e-001 1.881002e-001 4.294840e-001 2.204277e-001 -2.968617e-001 -5.125277e-002 7.191619e-002 1.057654e-001 1.297769e-001 -5.375766e-001 -4.333447e-002 6.834125e-004 8.547986e-002 2.140959e-002 -7.880280e-002 -1.165776e-002 6.804974e-002 6.643455e-002 -5.063669e-002 -6.040463e-002 7.105355e-002 5.230827e-002 1.160318e-003
<VARIANCE> 39
 3.342668e+001 2.846722e+001 6.066988e+001 9.184297e+001 7.116802e+001 6.234250e+001 5.920870e+001 5.493306e+001 5.019157e+001 6.326821e+001 3.735027e+001 3.590078e+001 1.174027e+002 7.609051e-001 8.894894e-001 1.804721e+000 1.917761e+000 1.898551e+000 2.399229e+000 2.414092e+000 2.937787e+000 2.359534e+000 2.873855e+000 2.303210e+000 2.192441e+000 5.566355e-001 9.968007e-002 1.360918e-001 2.550503e-001 2.612341e-001 3.198739e-001 3.976741e-001 4.441200e-001 4.530329e-001 4.304580e-001 4.663867e-001 4.329237e-001 4.033514e-001 7.449124e-002
<GCONST> 1.143276e+002
<TRANSP> 7
 0.000000e+000 1.000000e+000 0.000000e+000 0.000000e+000 0.000000e+000 0.000000e+000 0.000000e+000
 0.000000e+000 9.530665e-001 4.693351e-002 0.000000e+000 0.000000e+000 0.000000e+000 0.000000e+000
 0.000000e+000 0.000000e+000 9.000499e-001 9.995012e-002 0.000000e+000 0.000000e+000 0.000000e+000
 0.000000e+000 0.000000e+000 0.000000e+000 9.470084e-001 5.299166e-002 0.000000e+000 0.000000e+000
 0.000000e+000 0.000000e+000 0.000000e+000 0.000000e+000 8.786294e-001 1.213706e-001 0.000000e+000
 0.000000e+000 0.000000e+000 0.000000e+000 0.000000e+000 0.000000e+000 9.631898e-001 3.681016e-002
 0.000000e+000 0.000000e+000 0.000000e+000 0.000000e+000 0.000000e+000 0.000000e+000 0.000000e+000
<ENDHMM>
